tree
version=v3
num_class=1
num_tree_per_iteration=1
label_index=0
max_feature_idx=9
objective=binary sigmoid:1
feature_names=Column_0 Column_1 Column_2 Column_3 Column_4 Column_5 Column_6 Column_7 Column_8 Column_9
feature_infos=[4.4506534151556032e-05:0.99890598735203684] [0.0010156402954631938:0.9989235312657615] [0.00063887610237256531:0.99755958316409354] [0.0022853217102637435:0.99968554454017544] [0.00098072025691620102:0.99953683540568272] [0.0062444527052110121:0.99973388444501743] [0.00011118862233205906:0.99906350393842536] [0.0038479307711861699:0.99644594654671992] [0.00032014940326552388:0.99855726654500665] [0.0025320268835290483:0.99985564993490306]
tree_sizes=2169 2166 2076 2268 2274 2062 2077 2063 1966 2070

Tree=0
num_leaves=20
num_cat=0
split_feature=5 2 6 6 9 8 2 7 8 6 6 3 6 8 4 1 7 3 5
split_gain=8.9809 6.20914 7.65333 7.22416 5.42251 5.37155 4.52666 4.3995 8.29366 4.39905 4.00652 3.96707 2.80984 4.391 2.80986 2.78138 2.77808 2.72462 1.89695
threshold=0.91452047948895232 0.23384430754769173 0.13042062718058442 0.93147125403539199 0.44173063080240099 0.078526999134129374 0.112621311208311 0.52039406298667268 0.54543975414788881 0.51695976465089577 0.61554665933726949 0.42049971441134976 0.63917037650538189 0.41136575944025522 0.50051872049661095 0.55157130665293053 0.2605075454404534 0.53696187519217164 0.56536151404566193
decision_type=2 2 2 2 2 2 2 2 2 2 2 2 2 2 2 2 2 2 2
left_child=1 6 4 5 -3 -4 17 12 11 -10 -2 -9 14 -14 18 -8 -16 -1 -7
right_child=10 2 3 -5 -6 7 15 8 9 -11 -12 -13 13 -15 16 -17 -18 -19 -20
leaf_value=-0.036213277613353349 0.061267553317998533 0.059148404819490893 -0.2009982648573081 0.0019313953597843436 -0.083027194444022304 -0.028410958141575196 0.055333937522177121 -0.085538285768272743 -0.1983281377491885 -0.08420173716020396 -0.055285614099922178 0.012201115006398339 -0.23025357056366241 -0.11316029033502761 -0.095630941283048568 -0.044795829032309317 -0.19225966704891656 -0.13157496004619751 -0.11250262355962869
leaf_weight=6.9909281134605425 6.7412521094083768 5.2431960850954038 6.2419001013040534 5.9922240972518912 5.4928720891475677 5.4928720891475695 6.2419001013040525 7.2406041175127092 5.9922240972518903 7.7399561256170273 5.2431960850954056 9.7373641580343229 5.7425480931997281 7.2406041175127029 6.4915761053562147 4.9935200810432434 5.4928720891475677 5.2431960850954056 5.2431960850954056
leaf_count=28 27 21 25 24 22 22 25 29 24 31 21 39 23 29 26 20 22 21 21
internal_value=0 -0.0874053 -0.207599 -0.315711 0.584385 -0.402749 0.370352 -0.319391 -0.0418754 -0.619712 0.823067 0.425493 -0.558094 -0.929204 -0.346031 0.828629 -0.67888 -0.0505144 0.0255215
internal_weight=0 112.854 89.384 78.6479 10.7361 72.6557 23.4695 66.4138 30.7101 13.7322 11.9844 16.978 35.7037 12.9832 22.7205 11.2354 11.9844 12.2341 10.7361
internal_count=500 452 358 315 43 291 94 266 123 55 48 68 143 52 91 45 48 49 43
shrinkage=1


Tree=1
num_leaves=20
num_cat=0
split_feature=5 2 6 5 5 6 0 0 6 8 2 9 3 2 2 2 6 9 6
split_gain=7.2744 5.03827 6.21158 6.44236 11.3678 6.71552 5.60303 9.26095 5.34741 4.61847 4.04578 5.0128 4.33336 3.66212 3.64079 3.58829 2.56116 2.3238 0.852424
threshold=0.91452047948895232 0.23384430754769173 0.13042062718058442 0.49733266780507829 0.44643634588423126 0.90033409764317796 0.69570402588122671 0.34397402339900923 0.065882565259670525 0.48623399086499497 0.54286730668150673 0.64113560930577995 0.57203864761106493 0.112621311208311 0.58749609076980336 0.70887918097672376 0.50665198383646315 0.37156863852023819 0.60768272226104347
decision_type=2 2 2 2 2 2 2 2 2 2 2 2 2 2 2 2 2 2 2
left_child=1 13 8 4 5 6 7 9 -3 -4 12 15 -5 16 -2 -12 -1 -15 -9
right_child=14 2 3 10 -6 -7 -8 18 -10 -11 11 -13 -14 17 -16 -17 -18 -19 -20
leaf_value=0.038494410951974485 0.027464008875401909 -0.01636530901643362 0.04668873032031079 -0.14365110353050631 0.12548925815801759 0.084720470143679893 0.025706885599636128 -0.10977222105626505 0.12482305120199005 -0.074101563468402187 0.0016744610679226655 0.041415671093413896 -0.032229457256270459 0.12312334640362495 0.13923822954970019 -0.10207305374915093 -0.053220256044625852 0.031993491676494207 -0.16831181848759538
leaf_weight=6.4869031012058276 6.993957579135893 5.4926505982875806 6.7216656208038383 8.9537083208560926 5.9805959165096274 4.9905028939247122 9.2155177593231183 4.9778862297534925 5.2432927638292313 5.9830414950847626 5.2262421697378185 6.4715810865163794 5.7205635309219351 5.2466422319412214 4.9957026392221451 9.2063420265912992 5.7381458729505539 5.9960684180259705 4.9719571620225906
leaf_count=26 28 22 27 36 24 20 37 20 21 24 21 26 23 21 20 37 23 24 20
internal_value=0 -0.0789699 -0.187484 -0.285148 -0.0239487 -0.23144 -0.400343 -0.667768 0.525892 -0.101952 -0.599668 -0.317135 -1.00215 0.333284 0.740367 -0.645046 -0.0455426 0.745211 -1.39025
internal_weight=0 112.623 89.1555 78.4196 42.8412 36.8606 31.8701 22.6546 10.7359 12.7047 35.5784 20.9042 14.6743 23.4678 11.9897 14.4326 12.225 11.2427 9.94984
internal_count=500 452 358 315 172 148 128 91 43 51 143 84 59 94 48 58 49 45 40
shrinkage=0.1


Tree=2
num_leaves=19
num_cat=0
split_feature=5 4 4 1 0 8 5 8 1 6 6 9 4 1 6 7 4 4
split_gain=5.91231 4.26448 6.57541 4.09275 4.63218 4.08649 7.35243 6.19003 3.62966 4.64201 6.20241 5.8875 4.12629 4.26198 3.28382 3.10083 1.88606 2.02027
threshold=0.91452047948895232 0.79759969951432674 0.74431482392340464 0.25725666897820965 0.6985675542392894 0.13568402112999986 0.45837877854308073 0.16443540339066406 0.10211259537621505 0.63917037650538189 0.52426773296042717 0.14262966896875098 0.34274760531834514 0.62060858822149123 0.61554665933726949 0.65857082134288203 0.29270043145978569 0.50323944876203219
decision_type=2 2 2 2 2 2 2 2 2 2 2 2 2 2 2 2 2 2
left_child=1 2 5 -3 -5 6 -1 -7 -9 10 11 -10 -11 -14 -2 16 -13 -18
right_child=14 3 -4 4 -6 7 -8 8 9 12 -12 15 13 -15 -16 -17 17 -19
leaf_value=0.016195636459397558 0.11312159976397043 0.011383286698097853 0.097650394196431137 -0.12097511726190356 -0.0029677846989579885 0.10824524844485067 -0.14834412923359283 -0.067090292747926189 0.096103866081411887 -0.099885765637286295 0.10384116488272782 -0.082793477318426442 0.058102998121905405 -0.060262283357557768 0.0075241633112661209 0.033176851931155375 0.032757342159257206 -0.052065985280978479
leaf_weight=5.696253687143324 6.7146818935871107 7.9315517991781261 6.7275760769844046 9.1542360484600049 5.2248968333005896 5.2305479347705832 5.1902464330196381 8.1871657073497754 5.7149243950843802 6.7066230624914196 7.7104430496692649 6.4580184370279374 5.9709706008434278 6.2014955133199692 5.2454596906900406 8.7046582698822004 4.9681681096553785 6.4575154185295105
leaf_count=23 27 32 27 37 21 21 21 33 23 27 31 26 24 25 21 35 20 26
internal_value=0 -0.0715144 0.0255781 -0.462852 -0.780952 -0.0513168 -0.622503 0.0346765 -0.0470236 0.0397069 0.232552 0.0402017 -0.369023 -0.0220046 0.668088 -0.157724 -0.395978 -0.151827
internal_weight=0 112.235 89.9246 22.3107 14.3791 83.197 10.8865 72.3105 67.08 58.8928 40.0137 32.3033 18.8791 12.1725 11.9601 26.5884 17.8837 11.4257
internal_count=500 452 362 90 58 335 44 291 270 237 161 130 76 49 48 107 72 46
shrinkage=0.1


Tree=3
num_leaves=21
num_cat=0
split_feature=5 2 8 6 6 5 5 6 6 6 2 2 2 3 7 2 4 2 6 6
split_gain=4.82369 4.00924 5.40701 5.32165 4.33102 4.18839 8.09472 5.12714 7.33409 8.23555 3.74385 3.98268 4.31991 3.55187 3.24824 3.02797 2.87191 4.80889 2.41395 1.67317
threshold=0.91452047948895232 0.23384430754769173 0.05771093032448716 0.13042062718058442 0.065882565259670525 0.49733266780507829 0.44643634588423126 0.43680896415994758 0.62075319089554448 0.77839544158938678 0.54286730668150673 0.67836157719245371 0.79916901618326686 0.57203864761106493 0.48070560066292362 0.58749609076980336 0.1825540824730246 0.11789008745178788 0.90033409764317796 0.52062436442249405
decision_type=2 2 2 2 2 2 2 2 2 2 2 2 2 2 2 2 2 2 2 2
left_child=1 16 -3 4 -4 6 7 14 -9 -10 13 -12 -13 -7 -5 -2 -1 19 -11 -18
right_child=15 2 3 5 -6 10 -8 8 9 18 11 12 -14 -15 -16 -17 17 -19 -20 -21
leaf_value=0.097765084725525656 0.018050982404727248 -0.11847236401449242 -0.0059838302067755453 -0.12887276482835106 0.12451089700864959 -0.12704838548983538 0.1182558803050115 0.091218753347985168 -0.11838140608187078 -0.020743275941998335 0.057155446282361223 -0.1209407954821608 -0.0052636620303404148 -0.023100983344609336 -0.020673478354884155 0.12049349770857379 0.0077410642857727689 0.069099571577149785 0.077960953941924982 -0.073292676611999397
leaf_weight=4.974864915013316 6.9592213630676252 4.8847984969615927 5.2262146174907667 5.2055825591087324 4.954402431845665 8.2954560518264753 5.2209142297506324 7.7027782946825054 6.1496095210313824 4.9233037382364255 5.2083735316991833 4.9149327725172034 9.4077948331832868 5.444861263036727 5.9413465261459351 4.9287690073251724 4.979114770889284 8.209312364459036 4.9881240427494049 5.2186980098485947
leaf_count=20 28 20 21 21 20 34 21 31 25 20 21 20 38 22 24 20 20 33 20 21
internal_value=0 -0.0647538 -0.162086 -0.102321 0.575215 -0.196292 0.0212076 -0.152473 0.109996 -0.274731 -0.458638 -0.177281 -0.44959 -0.858573 -0.712022 0.605237 0.303515 0.121318 0.289316 -0.337277
internal_weight=0 111.85 88.4685 83.5837 10.1806 73.4031 40.1317 34.9107 23.7638 16.061 33.2714 19.5311 14.3227 13.7403 11.1469 11.888 23.382 18.4071 9.91143 10.1978
internal_count=500 452 358 338 41 297 162 141 96 65 135 79 58 56 45 48 94 74 40 41
shrinkage=0.1


Tree=4
num_leaves=21
num_cat=0
split_feature=5 3 5 8 9 9 6 6 8 2 5 5 1 2 9 4 0 0 7 6
split_gain=3.94327 3.53916 4.55165 6.59484 4.99747 6.13246 4.78839 5.79217 5.86528 7.19243 4.91408 3.9042 3.87795 7.01464 3.60064 3.46674 3.34758 3.05876 2.78562 2.76504
threshold=0.91452047948895232 0.081277741349113933 0.49733266780507829 0.13568402112999986 0.21871957661277122 0.35204696534960572 0.91005644160671906 0.66760296449005241 0.31477435738379111 0.19952215706117885 0.26876276613710331 0.77772699637219589 0.31774755768293911 0.54541609431868887 0.64731788132948853 0.57742755394131706 0.54039511570389542 0.55987229843623676 0.62354466024933364 0.61554665933726949
decision_type=2 2 2 2 2 2 2 2 2 2 2 2 2 2 2 2 2 2 2 2
left_child=1 -1 6 -4 -5 -6 7 8 18 -10 17 12 -7 -14 -9 -12 -13 -11 -3 -2
right_child=19 2 3 4 5 11 -8 14 9 10 15 16 13 -15 -16 -17 -18 -19 -20 -21
leaf_value=-0.079675401473410498 0.098054489613374984 0.04521096143960758 -0.12265120019986959 0.057197067410067519 -0.1259587573249866 0.022825257326959059 0.11101368938473709 -0.091856387192951902 0.10925787254308017 -0.028697287293592361 -0.011919046309216974 -0.014106535364763291 -0.15980064787580087 0.0071087231592652615 0.010561995570978295 -0.12260553269864399 0.098751741417427513 0.082650677948281306 0.13939967523166819 0.00060448987875517056
leaf_weight=6.1409478932619086 6.5764259845018369 7.9198340177535993 6.002763718366622 8.6270021647214872 5.3784644603729239 6.1490050107240739 4.9660955667495719 7.8411023467779142 4.9425792843103435 4.940594747662546 5.4296862483024579 5.6537431776523572 5.1345169246196729 4.940928652882576 6.1053415387868881 5.9091840833425522 4.911359116435051 4.9276898950338364 5.202627420425415 5.2249103486537933
leaf_count=25 27 32 25 35 22 25 20 32 20 20 22 23 21 20 25 24 20 20 21 21
internal_value=0 -0.0588705 -0.015708 -0.247884 -0.103885 -0.285139 0.171031 0.083398 0.279995 0.00623165 -0.246954 -0.0895022 -0.397562 -0.779494 -0.470206 -0.696026 0.383575 0.269039 0.825537 0.549096
internal_weight=0 111.123 104.983 46.7978 40.795 32.168 58.1847 53.2186 39.2722 26.1497 21.2072 26.7896 16.2245 10.0754 13.9464 11.3389 10.5651 9.86828 13.1225 11.8013
internal_count=500 452 427 191 166 131 236 216 159 106 86 109 66 41 57 46 43 40 53 48
shrinkage=0.1


Tree=5
num_leaves=19
num_cat=0
split_feature=5 2 2 7 6 6 5 1 9 5 0 8 1 2 0 0 0 0
split_gain=3.25145 4.29523 3.42936 4.37088 5.18946 4.92323 4.8987 5.4077 4.5247 3.84201 3.99229 7.04041 3.73511 2.48059 2.46629 4.35363 2.34379 2.47163
threshold=0.90717084779603852 0.61737883397212545 0.23384430754769173 0.13978882350537483 0.18272332120230181 0.43680896415994758 0.49733266780507829 0.30431596339202982 0.58621246606804778 0.35231162825719808 0.65303967481091973 0.47926760350923059 0.44463084486804982 0.74491015056434573 0.31694218447240635 0.73131448873570315 0.78322912537226641 0.54618090301021571
decision_type=2 2 2 2 2 2 2 2 2 2 2 2 2 2 2 2 2 2
left_child=2 -2 14 12 8 16 9 -8 -5 10 11 -7 -4 -9 -1 -16 17 -6
right_child=1 -3 3 4 5 6 7 13 -10 -11 -12 -13 -14 -15 15 -17 -18 -19
leaf_value=0.07622171811293714 0.0016714698358465639 0.11913030240843624 -0.1365572941265186 0.097317168548102642 -0.07100791002237565 0.058052606527598319 0.035014271053473135 -0.11115654565726918 -0.019441753306956563 0.093939419300291482 0.07987306305988022 -0.10093933892259399 -0.019552939391754856 -0.020217693400380755 -0.038424951328831641 0.06913435306706131 -0.11924573418233053 0.017200783747548288
leaf_weight=7.3860958665609386 8.0822896361350995 5.0638202726840964 5.0901799350976926 8.0791884660720807 8.9822212457656878 5.1348711997270637 6.8108994215726879 7.6692615002393705 5.6331928074359885 6.8905282616615287 4.9174688607454291 6.0863859057426453 5.8800816684961319 4.9262856841087341 9.106971859931944 6.4132776558399192 5.069781392812728 4.9146778583526602
leaf_count=30 33 21 21 33 37 21 28 32 23 28 20 25 24 20 37 26 21 20
internal_value=0 0.469161 -0.057303 -0.148804 -0.0626912 -0.186903 0.0024023 -0.367717 0.493514 0.314297 0.0474078 -0.281843 -0.738427 -0.755892 0.286569 0.0602071 -0.610451 -0.398127
internal_weight=0 13.1461 108.991 86.085 75.1148 61.4024 42.4357 19.4064 13.7124 23.0293 16.1387 11.2213 10.9703 12.5955 22.9063 15.5202 18.9667 13.8969
internal_count=500 54 446 353 308 252 174 80 56 94 66 46 45 52 93 63 78 57
shrinkage=0.1


Tree=6
num_leaves=19
num_cat=0
split_feature=5 3 5 8 9 9 6 6 6 1 8 9 4 9 7 6 7 5
split_gain=2.73452 2.83678 3.25322 5.56422 3.79283 5.08092 3.71206 4.89679 5.9954 4.73402 3.62592 4.08067 3.27192 2.89292 2.79842 2.37108 2.00616 1.68368
threshold=0.91452047948895232 0.081277741349113933 0.49733266780507829 0.13568402112999986 0.21871957661277122 0.35204696534960572 0.91005644160671906 0.62075319089554448 0.51129154664543408 0.20404994924581168 0.80162001792846593 0.79013534859403056 0.57742755394131706 0.57983942465932359 0.58160839302936773 0.61554665933726949 0.42556921694358446 0.29485938160520586
decision_type=2 2 2 2 2 2 2 2 2 2 2 2 2 2 2 2 2 2
left_child=1 -1 6 -4 -5 -6 7 8 9 -3 11 13 16 -7 -9 -2 -11 -14
right_child=15 2 3 4 5 10 -8 14 -10 12 -12 -13 17 -15 -16 -17 -18 -19
leaf_value=-0.07142638718390959 0.08690571614610032 0.081035583721662696 -0.11236352800343917 0.051360520297974999 -0.11347287865871694 0.035032700246516675 0.09805565990911122 -0.076242550423258018 0.11178975435807129 0.062810793348838587 -0.071909178750397929 0.085633412627993954 -0.015267334098321881 -0.054894072540175171 0.0064247444734189824 -0.0040599698019429566 -0.018101936588269633 -0.096403474929547553
leaf_weight=6.0644675195217124 6.3928508162498456 6.8040606081485775 5.8065867573022834 8.5731952190399152 5.2501092702150371 6.6068721562624031 4.8994932025670996 8.8816766738891619 6.8604312837123862 5.8805451244115847 6.3211634606122962 5.8073591291904441 5.104324743151663 7.8014436364173889 7.5979735851287833 5.1931322067975998 6.3985532075166702 5.1260656416416168
leaf_count=25 27 28 25 35 22 27 20 37 28 24 26 24 21 32 31 21 26 21
internal_value=0 -0.0494849 -0.0106154 -0.208356 -0.0766755 -0.235879 0.148004 0.0705338 0.276368 0.0794194 -0.0580484 0.148651 -0.141525 -0.136585 -0.381286 0.461326 0.206477 -0.559216
internal_weight=0 109.784 103.72 46.1667 40.3601 31.7869 57.5531 52.6536 36.174 29.3135 26.5368 20.2157 22.5095 14.4083 16.4797 11.586 12.2791 10.2304
internal_count=500 452 427 191 166 131 236 216 148 120 109 83 92 59 68 48 50 42
shrinkage=0.1


Tree=7
num_leaves=19
num_cat=0
split_feature=4 4 8 6 8 3 7 0 1 2 0 0 1 0 1 0 5 2
split_gain=2.50663 5.40261 2.76073 3.86849 5.178 3.75138 5.464 3.74011 3.39778 5.01829 3.88067 6.77391 4.38007 5.53801 2.59591 4.45547 2.35985 0.904461
threshold=0.79759969951432674 0.74431482392340464 0.13568402112999986 0.22667504575424627 0.63168487785622718 0.79096484987562021 0.44830438122579758 0.45353897867469051 0.11692852408856703 0.21017422835919589 0.35266409537489041 0.23652166607710487 0.68731051409449895 0.65303967481091973 0.32971832887223673 0.38395701198290955 0.55022517469697585 0.52051557211435673
decision_type=2 2 2 2 2 2 2 2 2 2 2 2 2 2 2 2 2 2
left_child=1 2 7 4 17 8 -7 -1 -5 -10 11 -11 13 -12 -2 -16 -17 -4
right_child=14 -3 3 5 -6 6 -8 -9 9 10 12 -13 -14 -15 15 16 -18 -19
leaf_value=0.019565295333841076 0.012618622992879944 0.090296044435815445 0.066175585914362511 -0.087937667301263733 -0.020905485742250467 -0.015302648219581586 0.10956599268980148 -0.09562602515425711 0.056043489825397003 -0.040636653032534852 -0.097245066330972699 0.10406693379182141 -0.12181832444012815 0.042938686593155827 -0.1345923431046708 -0.064442111786909659 0.033741898560212528 0.12597517321909157
leaf_weight=4.9927431195974332 9.1198690831661242 7.2166962772607794 5.3622837364673632 6.0450951308012 6.3227674067020407 7.8085311055183393 6.3574087917804718 6.4730624705553055 9.5179282724857313 8.7104791551828402 5.0918001532554644 5.1464132219552985 6.6411377489566794 6.3110175430774689 4.7769288122653952 5.0456889271736127 4.7547454535961151 4.7873285263776779
leaf_count=21 38 30 22 25 26 32 26 28 39 36 21 21 28 26 20 21 20 20
internal_value=0 0.070611 0.00354673 0.0708144 0.501298 -0.0442449 0.407361 -0.454664 -0.17903 -0.0768138 -0.266943 0.131059 -0.572589 -0.196588 -0.292261 -0.55405 -0.168075 0.943816
internal_weight=0 96.7847 89.568 78.1022 16.4724 61.6298 14.1659 11.4658 47.4639 41.4188 31.9008 13.8569 18.044 11.4028 23.6972 14.5774 9.80043 10.1496
internal_count=500 401 371 322 68 254 58 49 196 171 132 57 75 47 99 61 41 42
shrinkage=0.1


Tree=8
num_leaves=18
num_cat=0
split_feature=5 3 4 5 9 1 3 1 6 6 6 1 2 1 4 4 7
split_gain=2.44891 5.76189 5.17003 3.81103 3.71343 3.3189 4.33833 3.85235 3.13598 3.88358 4.90384 3.64579 2.65561 5.07737 2.44814 2.55873 2.32956
threshold=0.77772699637219589 0.081277741349113933 0.25032338754159716 0.49733266780507829 0.26890186666812171 0.8765309632723054 0.29059411285406955 0.34333232792718776 0.91005644160671906 0.62075319089554448 0.51129154664543408 0.20404994924581168 0.54286730668150673 0.31774755768293911 0.61360993102672923 0.32521509066964471 0.58160839302936773
decision_type=2 2 2 2 2 2 2 2 2 2 2 2 2 2 2 2 2
left_child=1 -1 -2 8 -5 6 -4 -8 9 10 11 -3 13 -6 15 -13 -11
right_child=2 3 5 4 12 -7 7 -9 -10 16 -12 14 -14 -15 -16 -17 -18
leaf_value=-0.11253739910309397 -0.052809848218913137 0.071240996162892686 0.09910376738285287 0.025694707382112904 -0.0090218996399249202 0.12310532183642726 0.047632275894204879 -0.070637091936387633 0.09039687602615383 -0.06956904235241658 0.10136309024980049 -0.021235379053695408 -0.012555618959293975 -0.13908842556700435 -0.053427777501618028 0.068098865391702484 0.0062826601796208293
leaf_weight=4.9837660640478125 6.4362845867872265 6.7200649231672314 5.7236698865890565 8.3722803145647067 5.2509309798479098 4.7526205629110327 5.8384250253438932 5.2133751064538956 4.820777788758277 8.7313985526561755 6.7399808317422858 8.0757817924022692 9.3272478729486448 7.0053683519363403 8.9028499573469144 5.3171750605106345 7.5501500964164725
leaf_count=21 27 28 24 35 22 20 24 22 20 37 28 33 39 30 37 22 31
internal_value=0 -0.0797329 0.258275 -0.0197054 -0.308362 0.493379 0.28439 -0.0815796 0.132374 0.060893 0.245239 0.0667517 -0.527647 -0.833644 -0.127853 0.142315 -0.343948
internal_weight=0 91.7978 27.9644 86.814 29.9558 21.5281 16.7755 11.0518 56.8582 52.0374 35.7559 29.0159 21.5835 12.2563 22.2958 13.393 16.2815
internal_count=500 383 117 362 126 90 70 46 236 216 148 120 91 52 92 55 68
shrinkage=0.1


Tree=9
num_leaves=19
num_cat=0
split_feature=5 9 9 8 8 7 9 9 3 0 0 7 3 6 0 6 9 3
split_gain=2.20245 2.53515 2.86934 3.08545 6.22331 4.98995 5.32669 6.39007 4.81526 3.83323 3.182 2.72005 2.5958 2.38354 5.70372 4.25792 3.61307 2.24582
threshold=0.91452047948895232 0.058012879773090394 0.73258515916073763 0.77413691296703091 0.6610318912636054 0.14928824362465595 0.30993432963122608 0.42408213602770972 0.53696187519217164 0.72729793252813024 0.62012932593026371 0.42556921694358446 0.40214207604165075 0.18272332120230181 0.78322912537226641 0.77839544158938678 0.86783733245632633 0.38655039257453389
decision_type=2 2 2 2 2 2 2 2 2 2 2 2 2 2 2 2 2 2
left_child=1 -1 3 4 5 -3 8 -8 -7 11 -5 -9 -13 -4 15 16 -15 -2
right_child=17 2 13 10 -6 6 7 9 -10 -11 -12 12 -14 14 -16 -17 -18 -19
leaf_value=0.063066489659439215 0.0025131983170645321 -0.083332866523799717 0.082715911511712814 -0.01982987390058916 -0.11580613037374408 -0.099312166335664226 0.11839586045766648 -0.086151625258192158 0.0070027641261670064 0.07751851286560299 0.07215768381831969 -0.054855873053790839 0.039675621095133402 0.048997016626402809 -0.088306727168896759 0.10844477401377826 -0.067447080618298003 0.092208882048644025
leaf_weight=5.279936507344245 6.367203086614607 9.1922666728496534 5.0001222342252758 8.1466541439294797 7.1023272424936286 8.5652093291282672 5.7565676569938686 4.8146126568317476 8.4760987460613233 4.9448682814836493 6.9844987988471976 4.7772105485200864 7.4112960994243622 6.1935615837574058 4.923139199614524 5.2676165699958792 4.6767335385084152 4.9706615954637527
leaf_count=22 27 39 21 34 30 36 24 20 36 21 29 20 31 26 21 22 20 21
internal_value=0 -0.0450329 -0.0799301 -0.177923 -0.278128 -0.162263 -0.024404 0.246196 -0.464327 0.000237767 0.226313 -0.225133 0.0262458 0.206485 0.0591296 0.346563 -0.011008 0.418369
internal_weight=0 107.513 102.233 76.1716 61.0405 53.9381 44.7459 27.7046 17.0413 21.948 15.1312 17.0031 12.1885 26.0612 21.0611 16.1379 10.8703 11.3379
internal_count=500 452 430 320 257 227 188 116 72 92 63 71 51 110 89 68 46 48
shrinkage=0.1


end of trees

feature importances:
Column_6=35
Column_5=24
Column_2=21
Column_0=18
Column_9=18
Column_8=16
Column_1=15
Column_4=14
Column_3=12
Column_7=12

parameters:
[boosting: gbdt]
[objective: binary]
[metric: auc]
[tree_learner: serial]
[device_type: cpu]
[data: ]
[valid: ]
[num_iterations: 100]
[learning_rate: 0.1]
[num_leaves: 31]
[num_threads: 0]
[max_depth: -1]
[min_data_in_leaf: 20]
[min_sum_hessian_in_leaf: 0.001]
[bagging_fraction: 1]
[pos_bagging_fraction: 1]
[neg_bagging_fraction: 1]
[bagging_freq: 0]
[bagging_seed: 3]
[feature_fraction: 1]
[feature_fraction_bynode: 1]
[feature_fraction_seed: 2]
[early_stopping_round: 0]
[first_metric_only: 0]
[max_delta_step: 0]
[lambda_l1: 0]
[lambda_l2: 0]
[min_gain_to_split: 0]
[drop_rate: 0.1]
[max_drop: 50]
[skip_drop: 0.5]
[xgboost_dart_mode: 0]
[uniform_drop: 0]
[drop_seed: 4]
[top_rate: 0.2]
[other_rate: 0.1]
[min_data_per_group: 100]
[max_cat_threshold: 32]
[cat_l2: 10]
[cat_smooth: 10]
[max_cat_to_onehot: 4]
[top_k: 20]
[monotone_constraints: ]
[feature_contri: ]
[forcedsplits_filename: ]
[forcedbins_filename: ]
[refit_decay_rate: 0.9]
[cegb_tradeoff: 1]
[cegb_penalty_split: 0]
[cegb_penalty_feature_lazy: ]
[cegb_penalty_feature_coupled: ]
[verbosity: 1]
[max_bin: 255]
[max_bin_by_feature: ]
[min_data_in_bin: 3]
[bin_construct_sample_cnt: 200000]
[histogram_pool_size: -1]
[data_random_seed: 1]
[output_model: LightGBM_model.txt]
[snapshot_freq: -1]
[input_model: ]
[output_result: LightGBM_predict_result.txt]
[initscore_filename: ]
[valid_data_initscores: ]
[pre_partition: 0]
[enable_bundle: 1]
[max_conflict_rate: 0]
[is_enable_sparse: 1]
[sparse_threshold: 0.8]
[use_missing: 1]
[zero_as_missing: 0]
[two_round: 0]
[save_binary: 0]
[header: 0]
[label_column: ]
[weight_column: ]
[group_column: ]
[ignore_column: ]
[categorical_feature: ]
[predict_raw_score: 0]
[predict_leaf_index: 0]
[predict_contrib: 0]
[num_iteration_predict: -1]
[pred_early_stop: 0]
[pred_early_stop_freq: 10]
[pred_early_stop_margin: 10]
[convert_model_language: ]
[convert_model: gbdt_prediction.cpp]
[num_class: 1]
[is_unbalance: 0]
[scale_pos_weight: 1]
[sigmoid: 1]
[boost_from_average: 1]
[reg_sqrt: 0]
[alpha: 0.9]
[fair_c: 1]
[poisson_max_delta_step: 0.7]
[tweedie_variance_power: 1.5]
[max_position: 20]
[lambdamart_norm: 1]
[label_gain: ]
[metric_freq: 1]
[is_provide_training_metric: 0]
[eval_at: ]
[multi_error_top_k: 1]
[num_machines: 1]
[local_listen_port: 12400]
[time_out: 120]
[machine_list_filename: ]
[machines: ]
[gpu_platform_id: -1]
[gpu_device_id: -1]
[gpu_use_dp: 0]

end of parameters

pandas_categorical:null
